<?xml version="1.0"?>
<opencv_storage>
<cascade>
  <stageType>BOOST</stageType>
  <featureType>HAAR</featureType>
  <height>24</height>
  <width>24</width>
  <stageParams>
    <boostType>GAB</boostType>
    <minHitRate>9.9900001287460327e-01</minHitRate>
    <maxFalseAlarm>5.0000000000000000e-01</maxFalseAlarm>
    <weightTrimRate>9.4999999999999996e-01</weightTrimRate>
    <maxDepth>1</maxDepth>
    <maxWeakCount>100</maxWeakCount></stageParams>
  <featureParams>
    <maxCatCount>0</maxCatCount>
    <featSize>1</featSize>
    <mode>ALL</mode></featureParams>
  <stageNum>10</stageNum>
  <stages>
    <!-- stage 0 -->
    <_>
      <maxWeakCount>3</maxWeakCount>
      <stageThreshold>-1.0859745740890503e+00</stageThreshold>
      <weakClassifiers>
        <_>
          <internalNodes>
            0 -1 21 -2.6869364082813263e-02</internalNodes>
          <leafValues>
            7.1084338426589966e-01 -8.1434601545333862e-01</leafValues></_>
        <_>
          <internalNodes>
            0 -1 6 4.6035420149564743e-02</internalNodes>
          <leafValues>
            -7.9640328884124756e-01 6.3459247350692749e-01</leafValues></_>
        <_>
          <internalNodes>
            0 -1 28 -5.1176752895116806e-02</internalNodes>
          <leafValues>
            -9.0622103214263916e-01 5.5303663015365601e-01</leafValues></_></weakClassifiers></_>
    <!-- stage 1 -->
    <_>
      <maxWeakCount>2</maxWeakCount>
      <stageThreshold>-6.1577968299388885e-02</stageThreshold>
      <weakClassifiers>
        <_>
          <internalNodes>
            0 -1 32 -5.1210604608058929e-02</internalNodes>
          <leafValues>
            8.8709676265716553e-01 -6.6308242082595825e-01</leafValues></_>
        <_>
          <internalNodes>
            0 -1 19 -4.6179232001304626e-01</internalNodes>
          <leafValues>
            -8.8027548789978027e-01 6.0150444507598877e-01</leafValues></_></weakClassifiers></_>
    <!-- stage 2 -->
    <_>
      <maxWeakCount>3</maxWeakCount>
      <stageThreshold>-8.6204302310943604e-01</stageThreshold>
      <weakClassifiers>
        <_>
          <internalNodes>
            0 -1 1 3.5494185984134674e-02</internalNodes>
          <leafValues>
            -7.2950822114944458e-01 6.4779871702194214e-01</leafValues></_>
        <_>
          <internalNodes>
            0 -1 7 4.4917032122612000e-02</internalNodes>
          <leafValues>
            -8.6366951465606689e-01 5.1373565196990967e-01</leafValues></_>
        <_>
          <internalNodes>
            0 -1 27 -3.5020858049392700e-02</internalNodes>
          <leafValues>
            7.3113471269607544e-01 -6.0146194696426392e-01</leafValues></_></weakClassifiers></_>
    <!-- stage 3 -->
    <_>
      <maxWeakCount>5</maxWeakCount>
      <stageThreshold>-1.5534249544143677e+00</stageThreshold>
      <weakClassifiers>
        <_>
          <internalNodes>
            0 -1 14 -3.4607149660587311e-02</internalNodes>
          <leafValues>
            7.4100720882415771e-01 -6.7424243688583374e-01</leafValues></_>
        <_>
          <internalNodes>
            0 -1 35 -3.8534291088581085e-02</internalNodes>
          <leafValues>
            6.9115847349166870e-01 -4.8135223984718323e-01</leafValues></_>
        <_>
          <internalNodes>
            0 -1 26 -7.3616318404674530e-02</internalNodes>
          <leafValues>
            6.3888239860534668e-01 -5.0183451175689697e-01</leafValues></_>
        <_>
          <internalNodes>
            0 -1 10 4.5387339196167886e-04</internalNodes>
          <leafValues>
            4.5729169249534607e-01 -8.1298375129699707e-01</leafValues></_>
        <_>
          <internalNodes>
            0 -1 2 2.2593796253204346e-02</internalNodes>
          <leafValues>
            -3.5328748822212219e-01 9.2697286605834961e-01</leafValues></_></weakClassifiers></_>
    <!-- stage 4 -->
    <_>
      <maxWeakCount>6</maxWeakCount>
      <stageThreshold>-1.1630158424377441e+00</stageThreshold>
      <weakClassifiers>
        <_>
          <internalNodes>
            0 -1 37 -3.7114173173904419e-02</internalNodes>
          <leafValues>
            4.7619047760963440e-01 -6.5957444906234741e-01</leafValues></_>
        <_>
          <internalNodes>
            0 -1 22 -2.8310764580965042e-02</internalNodes>
          <leafValues>
            5.8268553018569946e-01 -5.4752540588378906e-01</leafValues></_>
        <_>
          <internalNodes>
            0 -1 44 6.8544253008440137e-04</internalNodes>
          <leafValues>
            -3.8444331288337708e-01 7.3091161251068115e-01</leafValues></_>
        <_>
          <internalNodes>
            0 -1 5 -9.5800794661045074e-03</internalNodes>
          <leafValues>
            4.8586252331733704e-01 -5.3081190586090088e-01</leafValues></_>
        <_>
          <internalNodes>
            0 -1 8 1.9695471972227097e-02</internalNodes>
          <leafValues>
            -6.4966875314712524e-01 4.1614568233489990e-01</leafValues></_>
        <_>
          <internalNodes>
            0 -1 11 1.5177229419350624e-02</internalNodes>
          <leafValues>
            -4.6946179866790771e-01 5.4319351911544800e-01</leafValues></_></weakClassifiers></_>
    <!-- stage 5 -->
    <_>
      <maxWeakCount>5</maxWeakCount>
      <stageThreshold>-1.3706586360931396e+00</stageThreshold>
      <weakClassifiers>
        <_>
          <internalNodes>
            0 -1 31 5.0942942500114441e-02</internalNodes>
          <leafValues>
            -6.6210043430328369e-01 3.8043478131294250e-01</leafValues></_>
        <_>
          <internalNodes>
            0 -1 43 -8.5167000070214272e-03</internalNodes>
          <leafValues>
            9.2721444368362427e-01 -3.1859025359153748e-01</leafValues></_>
        <_>
          <internalNodes>
            0 -1 24 8.0293165519833565e-03</internalNodes>
          <leafValues>
            -6.3452357053756714e-01 4.5793190598487854e-01</leafValues></_>
        <_>
          <internalNodes>
            0 -1 20 -2.0828306674957275e-02</internalNodes>
          <leafValues>
            7.7371752262115479e-01 -2.9791641235351562e-01</leafValues></_>
        <_>
          <internalNodes>
            0 -1 39 -9.5096277073025703e-04</internalNodes>
          <leafValues>
            4.7622877359390259e-01 -5.4998338222503662e-01</leafValues></_></weakClassifiers></_>
    <!-- stage 6 -->
    <_>
      <maxWeakCount>5</maxWeakCount>
      <stageThreshold>-5.6463843584060669e-01</stageThreshold>
      <weakClassifiers>
        <_>
          <internalNodes>
            0 -1 18 -6.5325424075126648e-02</internalNodes>
          <leafValues>
            6.9491523504257202e-01 -5.5087721347808838e-01</leafValues></_>
        <_>
          <internalNodes>
            0 -1 0 2.4560909718275070e-02</internalNodes>
          <leafValues>
            -5.3349900245666504e-01 5.8175724744796753e-01</leafValues></_>
        <_>
          <internalNodes>
            0 -1 33 -4.7363147139549255e-02</internalNodes>
          <leafValues>
            -9.1640979051589966e-01 2.8914004564285278e-01</leafValues></_>
        <_>
          <internalNodes>
            0 -1 23 -5.8463893830776215e-02</internalNodes>
          <leafValues>
            7.7410495281219482e-01 -3.5576030611991882e-01</leafValues></_>
        <_>
          <internalNodes>
            0 -1 42 9.2206401750445366e-03</internalNodes>
          <leafValues>
            -5.2889823913574219e-01 6.5492928028106689e-01</leafValues></_></weakClassifiers></_>
    <!-- stage 7 -->
    <_>
      <maxWeakCount>6</maxWeakCount>
      <stageThreshold>-1.3021894693374634e+00</stageThreshold>
      <weakClassifiers>
        <_>
          <internalNodes>
            0 -1 13 -4.8008024692535400e-02</internalNodes>
          <leafValues>
            -8.4444445371627808e-01 3.4529146552085876e-01</leafValues></_>
        <_>
          <internalNodes>
            0 -1 12 9.2450436204671860e-03</internalNodes>
          <leafValues>
            -7.1320939064025879e-01 3.2614606618881226e-01</leafValues></_>
        <_>
          <internalNodes>
            0 -1 29 -4.3316669762134552e-02</internalNodes>
          <leafValues>
            8.0905991792678833e-01 -3.7155768275260925e-01</leafValues></_>
        <_>
          <internalNodes>
            0 -1 41 -6.0716560110449791e-03</internalNodes>
          <leafValues>
            7.0269817113876343e-01 -3.6337518692016602e-01</leafValues></_>
        <_>
          <internalNodes>
            0 -1 9 3.2849949784576893e-03</internalNodes>
          <leafValues>
            -8.5031217336654663e-01 3.8169935345649719e-01</leafValues></_>
        <_>
          <internalNodes>
            0 -1 15 -3.6868997849524021e-03</internalNodes>
          <leafValues>
            7.4272155761718750e-01 -4.3065756559371948e-01</leafValues></_></weakClassifiers></_>
    <!-- stage 8 -->
    <_>
      <maxWeakCount>7</maxWeakCount>
      <stageThreshold>-9.5752108097076416e-01</stageThreshold>
      <weakClassifiers>
        <_>
          <internalNodes>
            0 -1 3 1.7186710610985756e-02</internalNodes>
          <leafValues>
            -6.4444446563720703e-01 3.9325842261314392e-01</leafValues></_>
        <_>
          <internalNodes>
            0 -1 45 -6.9433962926268578e-03</internalNodes>
          <leafValues>
            7.1113151311874390e-01 -3.7208393216133118e-01</leafValues></_>
        <_>
          <internalNodes>
            0 -1 30 3.1378446146845818e-04</internalNodes>
          <leafValues>
            -4.2715147137641907e-01 5.5850791931152344e-01</leafValues></_>
        <_>
          <internalNodes>
            0 -1 36 -4.5946203172206879e-02</internalNodes>
          <leafValues>
            7.2923934459686279e-01 -3.2181563973426819e-01</leafValues></_>
        <_>
          <internalNodes>
            0 -1 34 -1.7900848761200905e-03</internalNodes>
          <leafValues>
            7.3724895715713501e-01 -2.9760047793388367e-01</leafValues></_>
        <_>
          <internalNodes>
            0 -1 25 7.9119317233562469e-03</internalNodes>
          <leafValues>
            -2.7812668681144714e-01 7.3655682802200317e-01</leafValues></_>
        <_>
          <internalNodes>
            0 -1 4 -2.4310396984219551e-03</internalNodes>
          <leafValues>
            -6.6820228099822998e-01 3.9804214239120483e-01</leafValues></_></weakClassifiers></_>
    <!-- stage 9 -->
    <_>
      <maxWeakCount>4</maxWeakCount>
      <stageThreshold>-8.7366271018981934e-01</stageThreshold>
      <weakClassifiers>
        <_>
          <internalNodes>
            0 -1 38 3.6030788905918598e-03</internalNodes>
          <leafValues>
            -6.4102566242218018e-01 4.4378697872161865e-01</leafValues></_>
        <_>
          <internalNodes>
            0 -1 17 2.4318050593137741e-02</internalNodes>
          <leafValues>
            -7.1129834651947021e-01 3.4321767091751099e-01</leafValues></_>
        <_>
          <internalNodes>
            0 -1 16 3.0992101877927780e-02</internalNodes>
          <leafValues>
            2.6918596029281616e-01 -8.7289375066757202e-01</leafValues></_>
        <_>
          <internalNodes>
            0 -1 40 -3.0486060306429863e-02</internalNodes>
          <leafValues>
            -8.3118915557861328e-01 2.9703897237777710e-01</leafValues></_></weakClassifiers></_></stages>
  <features>
    <_>
      <rects>
        <_>
          0 1 6 14 -1.</_>
        <_>
          0 1 3 7 2.</_>
        <_>
          3 8 3 7 2.</_></rects>
      <tilted>0</tilted></_>
    <_>
      <rects>
        <_>
          0 2 12 8 -1.</_>
        <_>
          0 2 6 4 2.</_>
        <_>
          6 6 6 4 2.</_></rects>
      <tilted>0</tilted></_>
    <_>
      <rects>
        <_>
          0 2 14 4 -1.</_>
        <_>
          0 2 7 2 2.</_>
        <_>
          7 4 7 2 2.</_></rects>
      <tilted>0</tilted></_>
    <_>
      <rects>
        <_>
          0 8 6 6 -1.</_>
        <_>
          3 8 3 6 2.</_></rects>
      <tilted>0</tilted></_>
    <_>
      <rects>
        <_>
          0 8 5 4 -1.</_>
        <_>
          0 10 5 2 2.</_></rects>
      <tilted>0</tilted></_>
    <_>
      <rects>
        <_>
          0 12 6 12 -1.</_>
        <_>
          0 12 3 6 2.</_>
        <_>
          3 18 3 6 2.</_></rects>
      <tilted>0</tilted></_>
    <_>
      <rects>
        <_>
          0 13 24 4 -1.</_>
        <_>
          6 13 12 4 2.</_></rects>
      <tilted>0</tilted></_>
    <_>
      <rects>
        <_>
          0 13 24 5 -1.</_>
        <_>
          6 13 12 5 2.</_></rects>
      <tilted>0</tilted></_>
    <_>
      <rects>
        <_>
          1 2 10 8 -1.</_>
        <_>
          1 2 5 4 2.</_>
        <_>
          6 6 5 4 2.</_></rects>
      <tilted>0</tilted></_>
    <_>
      <rects>
        <_>
          1 9 16 6 -1.</_>
        <_>
          5 9 8 6 2.</_></rects>
      <tilted>0</tilted></_>
    <_>
      <rects>
        <_>
          1 13 4 1 -1.</_>
        <_>
          1 13 2 1 2.</_></rects>
      <tilted>1</tilted></_>
    <_>
      <rects>
        <_>
          2 4 4 16 -1.</_>
        <_>
          4 4 2 16 2.</_></rects>
      <tilted>0</tilted></_>
    <_>
      <rects>
        <_>
          2 14 12 8 -1.</_>
        <_>
          8 14 6 8 2.</_></rects>
      <tilted>0</tilted></_>
    <_>
      <rects>
        <_>
          3 5 2 15 -1.</_>
        <_>
          3 10 2 5 2.</_></rects>
      <tilted>0</tilted></_>
    <_>
      <rects>
        <_>
          4 0 8 4 -1.</_>
        <_>
          6 2 4 4 2.</_></rects>
      <tilted>1</tilted></_>
    <_>
      <rects>
        <_>
          6 0 12 2 -1.</_>
        <_>
          6 0 6 1 2.</_>
        <_>
          12 1 6 1 2.</_></rects>
      <tilted>0</tilted></_>
    <_>
      <rects>
        <_>
          6 5 12 4 -1.</_>
        <_>
          6 5 6 4 2.</_></rects>
      <tilted>1</tilted></_>
    <_>
      <rects>
        <_>
          6 10 6 6 -1.</_>
        <_>
          6 10 6 3 2.</_></rects>
      <tilted>1</tilted></_>
    <_>
      <rects>
        <_>
          7 0 12 8 -1.</_>
        <_>
          7 2 12 4 2.</_></rects>
      <tilted>0</tilted></_>
    <_>
      <rects>
        <_>
          7 2 16 18 -1.</_>
        <_>
          7 8 16 6 2.</_></rects>
      <tilted>0</tilted></_>
    <_>
      <rects>
        <_>
          7 15 3 6 -1.</_>
        <_>
          5 17 3 2 3.</_></rects>
      <tilted>1</tilted></_>
    <_>
      <rects>
        <_>
          8 0 9 8 -1.</_>
        <_>
          8 2 9 4 2.</_></rects>
      <tilted>0</tilted></_>
    <_>
      <rects>
        <_>
          8 0 15 4 -1.</_>
        <_>
          8 2 15 2 2.</_></rects>
      <tilted>0</tilted></_>
    <_>
      <rects>
        <_>
          8 1 14 8 -1.</_>
        <_>
          8 1 7 4 2.</_>
        <_>
          15 5 7 4 2.</_></rects>
      <tilted>0</tilted></_>
    <_>
      <rects>
        <_>
          8 5 8 10 -1.</_>
        <_>
          10 5 4 10 2.</_></rects>
      <tilted>0</tilted></_>
    <_>
      <rects>
        <_>
          8 12 6 4 -1.</_>
        <_>
          7 13 6 2 2.</_></rects>
      <tilted>1</tilted></_>
    <_>
      <rects>
        <_>
          9 0 9 9 -1.</_>
        <_>
          12 3 3 3 9.</_></rects>
      <tilted>0</tilted></_>
    <_>
      <rects>
        <_>
          9 0 8 8 -1.</_>
        <_>
          9 2 8 4 2.</_></rects>
      <tilted>0</tilted></_>
    <_>
      <rects>
        <_>
          10 2 6 5 -1.</_>
        <_>
          12 2 2 5 2.</_></rects>
      <tilted>0</tilted></_>
    <_>
      <rects>
        <_>
          10 4 12 6 -1.</_>
        <_>
          10 4 6 3 2.</_>
        <_>
          16 7 6 3 2.</_></rects>
      <tilted>0</tilted></_>
    <_>
      <rects>
        <_>
          10 12 1 2 -1.</_>
        <_>
          10 13 1 1 2.</_></rects>
      <tilted>0</tilted></_>
    <_>
      <rects>
        <_>
          11 1 4 14 -1.</_>
        <_>
          11 8 4 7 2.</_></rects>
      <tilted>0</tilted></_>
    <_>
      <rects>
        <_>
          11 2 12 8 -1.</_>
        <_>
          11 2 6 4 2.</_>
        <_>
          17 6 6 4 2.</_></rects>
      <tilted>0</tilted></_>
    <_>
      <rects>
        <_>
          11 4 6 4 -1.</_>
        <_>
          13 4 2 4 2.</_></rects>
      <tilted>0</tilted></_>
    <_>
      <rects>
        <_>
          12 0 1 4 -1.</_>
        <_>
          12 1 1 2 2.</_></rects>
      <tilted>0</tilted></_>
    <_>
      <rects>
        <_>
          15 1 8 16 -1.</_>
        <_>
          15 1 4 8 2.</_>
        <_>
          19 9 4 8 2.</_></rects>
      <tilted>0</tilted></_>
    <_>
      <rects>
        <_>
          15 2 8 10 -1.</_>
        <_>
          15 2 4 5 2.</_>
        <_>
          19 7 4 5 2.</_></rects>
      <tilted>0</tilted></_>
    <_>
      <rects>
        <_>
          15 3 8 4 -1.</_>
        <_>
          15 3 8 2 2.</_></rects>
      <tilted>1</tilted></_>
    <_>
      <rects>
        <_>
          15 10 2 6 -1.</_>
        <_>
          13 12 2 2 3.</_></rects>
      <tilted>1</tilted></_>
    <_>
      <rects>
        <_>
          18 8 2 8 -1.</_>
        <_>
          19 8 1 8 2.</_></rects>
      <tilted>0</tilted></_>
    <_>
      <rects>
        <_>
          20 1 1 18 -1.</_>
        <_>
          20 1 1 9 2.</_></rects>
      <tilted>1</tilted></_>
    <_>
      <rects>
        <_>
          20 8 4 10 -1.</_>
        <_>
          21 8 2 10 2.</_></rects>
      <tilted>0</tilted></_>
    <_>
      <rects>
        <_>
          20 10 4 2 -1.</_>
        <_>
          20 10 2 2 2.</_></rects>
      <tilted>1</tilted></_>
    <_>
      <rects>
        <_>
          20 17 4 3 -1.</_>
        <_>
          21 18 2 3 2.</_></rects>
      <tilted>1</tilted></_>
    <_>
      <rects>
        <_>
          22 16 2 1 -1.</_>
        <_>
          23 16 1 1 2.</_></rects>
      <tilted>0</tilted></_>
    <_>
      <rects>
        <_>
          23 3 1 16 -1.</_>
        <_>
          23 7 1 8 2.</_></rects>
      <tilted>0</tilted></_></features></cascade>
</opencv_storage>
