<?xml version="1.0"?>
<opencv_storage>
<cascade>
  <stageType>BOOST</stageType>
  <featureType>HAAR</featureType>
  <height>80</height>
  <width>80</width>
  <stageParams>
    <boostType>GAB</boostType>
    <minHitRate>9.9900001287460327e-01</minHitRate>
    <maxFalseAlarm>5.0000000000000000e-01</maxFalseAlarm>
    <weightTrimRate>9.4999999999999996e-01</weightTrimRate>
    <maxDepth>1</maxDepth>
    <maxWeakCount>100</maxWeakCount></stageParams>
  <featureParams>
    <maxCatCount>0</maxCatCount>
    <featSize>1</featSize>
    <mode>ALL</mode></featureParams>
  <stageNum>5</stageNum>
  <stages>
    <!-- stage 0 -->
    <_>
      <maxWeakCount>2</maxWeakCount>
      <stageThreshold>6.4256466925144196e-02</stageThreshold>
      <weakClassifiers>
        <_>
          <internalNodes>
            0 -1 6 8.8100542780011892e-04</internalNodes>
          <leafValues>
            8.4049081802368164e-01 -7.4025976657867432e-01</leafValues></_>
        <_>
          <internalNodes>
            0 -1 10 -5.8983475901186466e-04</internalNodes>
          <leafValues>
            8.0451619625091553e-01 -6.3495242595672607e-01</leafValues></_></weakClassifiers></_>
    <!-- stage 1 -->
    <_>
      <maxWeakCount>3</maxWeakCount>
      <stageThreshold>-4.0322908759117126e-01</stageThreshold>
      <weakClassifiers>
        <_>
          <internalNodes>
            0 -1 1 -6.8093657493591309e-02</internalNodes>
          <leafValues>
            -9.5999997854232788e-01 6.7368423938751221e-01</leafValues></_>
        <_>
          <internalNodes>
            0 -1 5 -1.7049916088581085e-02</internalNodes>
          <leafValues>
            8.3356505632400513e-01 -5.7541459798812866e-01</leafValues></_>
        <_>
          <internalNodes>
            0 -1 9 -8.1050023436546326e-03</internalNodes>
          <leafValues>
            8.1144881248474121e-01 -5.0149869918823242e-01</leafValues></_></weakClassifiers></_>
    <!-- stage 2 -->
    <_>
      <maxWeakCount>2</maxWeakCount>
      <stageThreshold>-4.6335119754076004e-02</stageThreshold>
      <weakClassifiers>
        <_>
          <internalNodes>
            0 -1 3 2.9526680707931519e-02</internalNodes>
          <leafValues>
            7.0491802692413330e-01 -8.5964912176132202e-01</leafValues></_>
        <_>
          <internalNodes>
            0 -1 0 1.0281426832079887e-02</internalNodes>
          <leafValues>
            -6.5868526697158813e-01 8.1331402063369751e-01</leafValues></_></weakClassifiers></_>
    <!-- stage 3 -->
    <_>
      <maxWeakCount>2</maxWeakCount>
      <stageThreshold>-5.2256286144256592e-02</stageThreshold>
      <weakClassifiers>
        <_>
          <internalNodes>
            0 -1 7 4.3375988025218248e-04</internalNodes>
          <leafValues>
            7.9545456171035767e-01 -9.3750000000000000e-01</leafValues></_>
        <_>
          <internalNodes>
            0 -1 8 -1.8266066035721451e-04</internalNodes>
          <leafValues>
            -8.4771084785461426e-01 8.9609205722808838e-01</leafValues></_></weakClassifiers></_>
    <!-- stage 4 -->
    <_>
      <maxWeakCount>2</maxWeakCount>
      <stageThreshold>4.8780485987663269e-02</stageThreshold>
      <weakClassifiers>
        <_>
          <internalNodes>
            0 -1 4 4.8059932305477560e-04</internalNodes>
          <leafValues>
            1. -9.5121949911117554e-01</leafValues></_>
        <_>
          <internalNodes>
            0 -1 2 -3.5658013075590134e-04</internalNodes>
          <leafValues>
            -9.3103384971618652e-01 1.</leafValues></_></weakClassifiers></_></stages>
  <features>
    <_>
      <rects>
        <_>
          0 1 24 46 -1.</_>
        <_>
          0 1 12 23 2.</_>
        <_>
          12 24 12 23 2.</_></rects>
      <tilted>0</tilted></_>
    <_>
      <rects>
        <_>
          8 21 67 38 -1.</_>
        <_>
          8 40 67 19 2.</_></rects>
      <tilted>0</tilted></_>
    <_>
      <rects>
        <_>
          10 42 4 4 -1.</_>
        <_>
          11 42 2 4 2.</_></rects>
      <tilted>0</tilted></_>
    <_>
      <rects>
        <_>
          14 27 51 42 -1.</_>
        <_>
          14 48 51 21 2.</_></rects>
      <tilted>0</tilted></_>
    <_>
      <rects>
        <_>
          15 38 3 3 -1.</_>
        <_>
          16 39 1 1 9.</_></rects>
      <tilted>0</tilted></_>
    <_>
      <rects>
        <_>
          32 6 14 23 -1.</_>
        <_>
          32 6 7 23 2.</_></rects>
      <tilted>1</tilted></_>
    <_>
      <rects>
        <_>
          53 17 13 6 -1.</_>
        <_>
          53 17 13 3 2.</_></rects>
      <tilted>1</tilted></_>
    <_>
      <rects>
        <_>
          55 26 4 3 -1.</_>
        <_>
          56 27 2 3 2.</_></rects>
      <tilted>1</tilted></_>
    <_>
      <rects>
        <_>
          57 57 6 4 -1.</_>
        <_>
          57 58 6 2 2.</_></rects>
      <tilted>0</tilted></_>
    <_>
      <rects>
        <_>
          71 10 4 21 -1.</_>
        <_>
          64 17 4 7 3.</_></rects>
      <tilted>1</tilted></_>
    <_>
      <rects>
        <_>
          77 11 1 21 -1.</_>
        <_>
          70 18 1 7 3.</_></rects>
      <tilted>1</tilted></_></features></cascade>
</opencv_storage>
